Neural Network File Format by Kyle Julian, Stanford 2016
5,5,2,20,
5,20,20,20,20,2,
0
12.0, -3.141592653589793, -3.141592653589793,-1.2566370614359172,18.0
350.0, 3.141592653589793, 3.141592653589793,1.2566370614359172,24.0
58.91827212994, 0.0, 0.0, -0.15824155773913484, 21.0, 0.0,
338.0, 6.2831853071795862, 6.2831853071795862, 2.5132741228718345, 6.0, 1.0,
-4.406917e-01,7.492744e-01,4.432428e-01,-2.938479e-01,3.609874e-02,
-5.877621e-02,2.831346e-03,5.103940e-01,-1.975484e-01,-9.699136e-03,
6.977971e-01,-4.120017e-01,2.469646e-01,-1.375147e-01,-5.713335e-02,
9.344887e-02,-2.024759e-02,-5.730519e-01,3.288995e-01,-3.858075e-02,
-1.538516e-01,6.557879e-01,2.505132e-02,-3.663318e-01,3.734445e-02,
9.828654e-02,8.850707e-01,1.150974e-01,-3.174392e-01,9.177001e-03,
7.131506e-01,4.863527e-01,-2.655992e-01,1.857716e-01,3.867086e-02,
1.013929e+00,4.592952e-01,-2.009739e-01,-1.605580e-01,-6.124797e-02,
-1.089654e+00,-1.286609e-02,-2.903907e-01,-9.847973e-02,4.160229e-02,
4.121702e-01,6.993911e-02,-4.323545e-01,1.507238e-01,3.532882e-02,
2.899774e-01,1.152741e+00,-6.144603e-01,-1.986683e-01,-1.778291e-03,
-7.946196e-01,-4.890089e-01,-1.060328e-01,1.822811e-02,1.218848e-01,
-8.676357e-02,-5.143409e-01,-1.175192e-01,-4.279767e-01,4.656057e-02,
-1.416445e+00,4.104779e-01,-5.109522e-02,-2.496681e-01,1.301075e-01,
3.484636e-01,1.069568e-01,2.446423e-01,-4.417478e-01,-9.353330e-02,
1.666727e-01,5.814602e-01,-4.150356e-01,1.362342e-01,-1.597183e-03,
-4.691251e-01,5.245551e-01,-4.415250e-01,6.605969e-02,-1.525622e-02,
8.073562e-02,4.607788e-02,-1.116906e+00,1.158752e-01,1.000496e-02,
6.045824e-01,-2.986702e-01,4.717814e-01,1.407148e-01,1.319443e-01,
-8.055839e-03,-1.283601e+00,-1.474849e-01,4.984991e-01,-9.763433e-03,
-9.623421e-02,
-1.617759e-01,
1.448485e-01,
1.510321e-03,
2.762020e-01,
1.685374e-01,
2.050511e-01,
-5.076531e-03,
-2.020242e-02,
2.160106e-01,
-5.695710e-02,
2.550920e-01,
2.211368e-01,
1.710727e-01,
3.771325e-01,
-5.658906e-03,
1.326305e-01,
8.557493e-02,
1.942083e-01,
3.720108e-01,
4.622293e-01,-4.802576e-01,-2.385635e-02,5.787711e-01,-4.686470e-01,-7.594189e-02,5.142632e-02,-3.173007e-01,-7.046915e-01,1.210200e-01,2.679959e-01,-1.073572e-01,1.328143e-01,-7.733972e-02,5.682465e-01,3.034138e-03,-1.759185e-01,-2.104476e-01,2.485201e-01,-1.276254e-01,
3.416516e-02,-1.574086e-01,7.380079e-02,-3.117011e-01,-9.364598e-02,-4.055392e-01,3.534538e-01,-9.007372e-02,3.320246e-01,-3.129794e-01,-7.166690e-01,-1.798831e-01,6.630683e-02,-1.602460e-01,8.523781e-02,-3.803170e-01,-8.141877e-02,3.557388e-01,1.037654e-01,7.190674e-02,
-2.251021e-02,-7.321376e-01,6.397768e-01,1.969485e-01,8.138718e-02,9.665273e-02,2.613153e-01,-5.017305e-02,5.431173e-01,-1.236216e-02,5.985646e-01,5.463569e-02,8.897143e-02,1.889164e-02,-1.529831e-01,2.360346e-01,7.600418e-02,1.927185e-01,2.251554e-01,3.820442e-01,
-2.455468e-01,-2.104543e-01,-2.956157e-01,-3.506111e-01,-1.277287e-02,-1.333049e-02,6.894247e-03,-5.541406e-02,2.395931e-01,3.069502e-01,-4.528259e-01,-8.524269e-02,1.907023e-01,-1.901933e-01,4.885348e-01,-2.752938e-02,2.459101e-01,5.017496e-02,1.223744e-01,-2.666858e-01,
1.561987e-01,5.094787e-01,-6.201777e-01,-2.553524e-01,-7.040164e-02,-2.694040e-01,1.990153e-01,3.197553e-01,2.076809e-01,-1.016075e-01,2.974786e-01,2.346411e-01,-2.514260e-01,-3.316888e-01,1.400871e-01,1.832567e-01,-3.055480e-01,3.983847e-02,-1.312910e-01,-2.191514e-01,
3.731767e-02,2.968474e-02,-4.736966e-02,-4.397988e-02,-4.561569e-02,9.771088e-03,-2.937429e-02,-4.008580e-02,4.578598e-03,-8.502244e-03,1.646183e-02,-6.070812e-02,1.580684e-02,3.860286e-02,-4.254382e-02,-8.788680e-03,1.478672e-02,-2.351069e-02,-4.647689e-02,2.263293e-02,
-1.820804e-01,-4.047941e-03,1.758610e-01,-3.762706e-01,1.461491e-01,-3.027580e-01,-2.716564e-01,-8.894589e-02,2.143956e-01,2.762252e-01,2.713161e-01,1.119514e-01,-5.080794e-02,2.774365e-02,1.375584e-01,1.197521e-01,4.853758e-01,-4.177423e-01,6.559559e-02,6.649338e-02,
-1.230444e-01,9.551325e-01,-3.470787e-01,-3.902795e-01,1.107869e-01,-6.083288e-01,-2.278032e-01,1.755752e-01,2.416208e-01,6.017467e-01,3.758708e-01,1.836404e-02,8.059259e-03,2.295434e-01,3.040757e-01,-2.148189e-01,1.820748e-01,-1.998224e-01,2.884914e-02,1.028082e-01,
-4.501843e-02,7.983994e-01,-2.125550e-01,1.856695e-01,-4.714774e-01,2.077941e-01,-3.102812e-01,1.448971e-01,4.136077e-02,9.761168e-02,7.045513e-02,9.135842e-03,1.585420e-01,4.310578e-02,1.287034e-01,4.134475e-01,1.514832e-02,-1.416643e-01,8.741389e-02,2.171693e-01,
-4.791889e-02,-9.467612e-03,-1.131470e-02,-3.387778e-02,-1.600149e-02,-4.198861e-02,-8.038942e-03,-1.272641e-02,-3.868413e-03,2.615454e-02,-2.158339e-03,1.321443e-03,-2.636498e-02,-9.723326e-04,-5.045213e-02,-1.963948e-02,-6.457340e-03,-2.833518e-02,-3.465897e-02,1.781786e-02,
-3.658247e-03,3.631738e-03,1.536937e-02,5.130218e-04,-2.931061e-03,-4.424996e-04,-2.860152e-02,-4.041792e-02,-9.644593e-03,5.244014e-03,2.537812e-02,1.942761e-03,-5.590186e-03,2.490314e-02,-1.261765e-02,1.293935e-02,-5.267363e-02,3.061066e-02,-5.223318e-02,-2.760240e-02,
4.549341e-01,-8.358495e-01,-7.596671e-02,-3.141973e-01,1.890682e-01,1.045719e-01,-9.218333e-02,-4.987416e-01,2.002787e-01,4.100494e-01,5.045599e-02,2.120619e-02,8.558336e-04,-1.377999e-01,3.388578e-02,-4.292916e-01,2.993863e-01,-1.542624e-01,4.282485e-01,-3.074353e-01,
-1.601621e-01,1.883954e-01,-2.947520e-01,-3.536437e-01,3.143612e-01,1.804934e-01,-5.212620e-01,6.648424e-02,-1.843947e-01,1.724992e-01,3.444463e-02,2.133534e-01,-2.798458e-01,-1.088225e-01,1.006375e-01,8.359185e-01,-1.296730e-01,2.686958e-01,3.308111e-02,1.142236e-02,
3.507884e-03,1.055184e-01,-1.643558e-01,-2.155441e-01,1.208600e-01,-3.782106e-01,3.341739e-01,3.399320e-01,-2.375408e-01,3.238336e-01,2.896736e-02,-8.462509e-02,3.041408e-01,5.814955e-02,5.165592e-02,4.232596e-01,-4.456681e-01,-4.219411e-01,-2.408204e-01,7.313418e-02,
-3.343472e-03,9.902048e-01,-4.243421e-01,-6.554714e-01,5.724201e-01,-6.225381e-01,-1.996346e-01,8.208492e-01,2.433984e-01,-6.780377e-03,-4.020579e-01,5.314384e-01,-4.950799e-02,-1.928276e-01,-7.201158e-02,3.046862e-01,6.182821e-01,-3.020827e-01,-1.145760e-01,1.605846e-02,
1.138881e+00,-6.737779e-01,-3.416460e-01,-3.663867e-02,-2.808580e-02,-2.286669e-01,1.466561e-01,-9.486791e-02,1.492188e-01,1.731976e-01,-1.653799e-01,4.755396e-02,1.995860e-01,-2.562894e-01,1.352938e-01,4.971410e-01,-1.278861e-02,3.089819e-01,-3.382804e-02,2.531326e-02,
3.265234e-01,-2.180703e-01,6.279363e-01,-2.854396e-01,1.243123e-01,3.967110e-02,-3.717400e-02,-1.771412e-01,4.203753e-01,-4.289737e-01,6.508687e-01,9.380697e-02,1.937656e-01,2.512262e-02,2.437169e-01,9.612093e-02,-1.988993e-01,7.739815e-02,2.852777e-01,1.836976e-01,
-1.153230e-02,-4.058393e-02,-2.771291e-03,-5.725461e-02,-3.746481e-02,-1.151860e-02,-2.251320e-02,2.902917e-02,2.086222e-02,-9.005885e-03,2.849810e-02,-2.766756e-02,6.516492e-03,-1.734801e-02,-2.306379e-02,8.378191e-03,3.537108e-02,4.181038e-03,-1.873155e-02,1.474194e-02,
2.688619e-01,3.933575e-01,-2.994633e-01,2.866271e-01,3.037306e-01,3.351669e-02,3.829867e-01,-1.672865e-01,3.628310e-01,4.462132e-01,-1.522785e+00,-1.908476e-01,4.365412e-01,-2.854472e-01,5.271219e-01,1.063537e+00,4.442248e-02,-1.251253e-01,7.697392e-02,6.260251e-04,
2.990139e-01,3.040133e-01,-2.229099e-01,-1.815939e-02,4.356177e-01,2.997933e-01,-7.070301e-01,8.285070e-01,-1.582604e+00,-6.215379e-02,-1.929640e-02,-4.977494e-02,-1.661246e-01,-4.649416e-01,-2.530343e-02,5.569696e-01,-3.621613e-01,4.888276e-02,3.211512e-02,-1.074944e-01,
-6.845658e-02,
6.046005e-02,
3.733430e-02,
1.957822e-01,
1.971641e-01,
-8.967168e-03,
2.982154e-02,
-1.002066e-01,
-8.599740e-03,
-5.925418e-03,
-1.252845e-02,
1.343754e-01,
-6.203475e-02,
1.283507e-01,
3.087877e-02,
4.379758e-02,
8.297028e-02,
-1.304040e-02,
-5.891024e-02,
-9.075355e-02,
2.802262e-01,-1.776350e-01,-2.361428e-02,-1.660476e-01,8.126263e-01,-4.016031e-02,9.867206e-01,1.306399e-02,9.789173e-01,2.672066e-03,1.697667e-03,-3.251236e-01,2.648164e-01,-1.702353e-01,-4.756650e-01,-7.723741e-01,-3.289676e-01,-2.257894e-02,7.430230e-01,1.987955e-01,
2.288764e+00,-3.030077e+00,-1.878434e-01,7.869043e-01,1.619029e-01,-5.307966e-04,-1.751312e-01,6.805288e-01,5.596001e-01,-4.375912e-02,-3.650910e-02,6.038316e-01,5.468240e-01,7.475765e-01,4.835443e-01,6.086528e-01,-1.670505e-01,-3.198400e-02,2.178236e-01,8.412500e-01,
1.452080e+00,1.393062e-01,-5.193496e-01,4.783319e-01,3.236318e-01,-4.327112e-02,6.843071e-02,1.538112e+00,7.923263e-01,4.781838e-02,-4.219253e-02,2.848704e-01,-7.841843e-01,1.258882e-01,4.483541e-02,1.089477e-01,-3.122473e-01,4.235878e-02,4.339254e-01,-5.244528e+00,
1.332366e+00,3.641749e-01,2.947813e-02,7.529835e-02,-4.208314e-01,5.888710e-03,5.304339e-01,-7.944823e-01,3.966402e-02,1.102144e-02,2.860620e-02,-2.043472e-01,2.705116e-01,-4.456422e-01,9.457631e-01,3.834142e-01,-1.738084e-01,2.580520e-02,-2.442043e-01,-1.176751e-01,
-4.769995e-02,-2.272112e-02,1.932777e-03,3.368653e-02,-1.598676e-02,-4.584762e-02,5.178729e-03,-5.070429e-02,-4.621298e-03,-1.073494e-02,-1.264974e-02,-3.860207e-02,-3.337027e-02,-3.037588e-02,2.163853e-02,1.058874e-02,-5.976011e-04,-5.121724e-02,-4.852049e-02,4.433635e-02,
8.156035e-01,6.306792e-01,-3.717578e-01,4.506355e-01,-1.260995e+00,8.686154e-03,2.757646e-01,3.680726e-01,7.604807e-01,-3.536168e-02,1.904299e-02,9.749489e-02,2.035797e-02,6.259651e-01,-5.251380e-02,6.064132e-02,-2.969803e-01,-3.137078e-02,3.234220e-01,1.900620e+00,
2.219120e-01,-6.248671e-02,-3.133606e-01,5.201232e-01,-1.530127e+00,-3.763447e-03,8.626332e-01,5.931175e-01,3.681893e-01,-2.436940e-02,-4.119314e-02,2.640220e-01,3.288127e-01,8.891605e-01,-2.577346e-01,-7.706086e-02,-2.120481e-01,-4.204374e-02,1.162784e-02,1.275836e+00,
2.706073e-01,4.602870e-01,-2.849372e-01,1.693400e-01,-1.900443e+00,7.282748e-03,3.930569e-01,1.700761e+00,1.370338e-01,1.983757e-02,-4.139887e-02,-2.844292e-01,-5.996307e-02,-3.688267e-01,-1.031936e+00,3.655250e-01,-3.205981e-01,-3.352707e-02,1.145288e+00,-2.524665e+00,
1.056713e-01,3.894798e-01,-2.446248e-01,1.773874e-01,-1.691709e+00,2.582607e-02,1.180841e-01,1.111957e+00,5.714231e-01,-1.555245e-02,-4.679252e-03,6.457735e-01,1.240503e+00,1.306763e+00,8.129419e-01,-7.928577e-01,-1.579626e-01,1.369906e-02,4.070697e-01,-1.064374e+00,
-5.205621e-01,7.119337e-01,4.440731e-01,5.759554e-01,1.393645e+00,1.425276e-02,1.712211e-01,-2.415257e-01,-4.513177e-01,-4.590941e-02,2.404796e-04,2.334619e-01,-7.290006e-01,-4.326449e-01,4.487660e-01,4.211287e-01,6.050737e-01,6.412604e-03,7.575259e-01,1.537494e+00,
-5.298272e-01,1.666734e+00,-3.272715e-01,7.582032e-01,-1.681478e-01,-1.093784e-02,9.441145e-01,5.160905e-01,-1.901525e-01,-3.428479e-02,-5.685769e-03,3.324018e-01,9.384560e-01,-6.020452e-01,2.757310e-01,3.773612e-01,-2.245605e-02,4.302130e-02,-1.720252e-01,1.576518e+00,
-5.853786e-01,6.453132e-01,5.463230e-01,5.396302e-01,1.479920e+00,4.305295e-02,1.910308e-01,-3.717248e-01,-5.404854e-01,-4.555971e-02,-3.499363e-02,2.593528e-01,-6.759437e-01,-4.389086e-01,4.643461e-01,4.144256e-01,5.826842e-01,1.648661e-02,6.784696e-01,1.815168e+00,
2.445568e-02,-3.857834e-02,-2.277156e-03,-3.647883e-03,3.651797e-02,1.836990e-03,4.157175e-02,-5.166179e-02,2.509409e-02,2.589608e-02,3.124103e-02,-4.799843e-02,-4.907386e-02,-4.868376e-02,-1.510744e-02,-1.600792e-02,-4.744741e-02,-4.957436e-02,-2.270905e-02,2.750085e-02,
-3.305180e-02,5.124218e-01,-3.971714e-01,2.414467e-01,-1.255079e+00,-3.736576e-02,7.083657e-01,-1.480496e-02,6.423424e-01,-3.307084e-02,-2.502816e-02,6.963761e-02,1.261206e+00,6.865687e-01,2.695958e-01,-1.303061e-01,-1.187400e-01,-1.716711e-02,-2.681249e-02,1.904760e-01,
-8.353397e-01,1.511171e+00,2.404587e-01,5.278346e-02,4.099020e-02,-3.131288e-02,1.552584e-01,7.421804e-01,1.088035e+00,2.047994e-02,-4.248407e-02,2.902692e-01,1.269337e+00,1.401880e-01,-9.779689e-01,2.468848e-01,-1.401585e-01,-3.653317e-03,-7.993539e-02,1.337177e+00,
-1.701763e+00,1.124436e+00,-3.814484e-01,1.385082e-01,-6.956982e-01,1.292347e-02,8.189273e-01,-1.939794e-01,5.490260e-01,3.117052e-02,-2.606102e-02,6.429912e-01,8.709369e-01,1.824433e-01,2.546718e-01,2.956781e-01,-1.094462e-01,-3.528314e-02,2.169341e-01,1.680855e+00,
1.802178e+00,-7.596123e-01,-1.825372e-01,1.455741e-01,-1.393015e-01,-1.843688e-02,-6.196601e-01,4.642400e-01,8.798236e-01,-3.951135e-02,3.241900e-02,3.623947e-01,1.627333e+00,5.181966e-01,-6.643872e-01,4.845125e-01,-2.132945e-01,5.665248e-03,2.210114e-01,-4.513872e+00,
-7.023181e-01,1.106158e+00,-1.082066e-01,3.494882e-01,1.689121e-01,5.540732e-06,-2.854977e-01,5.727224e-01,-6.404873e-01,-1.052758e-02,3.377337e-02,-5.854768e-01,-2.055402e+00,4.490738e-01,-5.844276e-01,5.347326e-01,-4.376679e-01,-8.348608e-03,-1.365118e-01,-7.421131e+00,
3.564572e-01,5.257663e-01,-1.717424e-01,-5.439975e-02,-1.076596e+00,1.785587e-02,2.854159e-01,-1.028176e-01,9.230300e-01,3.881645e-02,-4.471406e-02,3.470090e-01,-1.780213e-01,5.792384e-01,-1.104432e-01,3.965784e-01,-5.395201e-01,1.075942e-02,6.078241e-02,1.639415e+00,
-3.426694e-02,-1.111616e-02,-4.624045e-02,-1.703276e-02,1.862589e-02,4.050979e-02,7.606310e-03,-3.387040e-02,2.186321e-02,1.674241e-02,2.424881e-02,-5.351644e-03,-4.741475e-03,8.311395e-03,-2.695279e-02,-1.010912e-02,-3.502032e-02,-3.859719e-02,3.624495e-03,-5.179565e-02,
-1.397804e-01,
-2.829701e-01,
1.395123e-01,
-1.818494e-02,
-6.042837e-03,
8.270828e-02,
4.147402e-02,
2.780097e-01,
2.734723e-01,
4.435339e-01,
-4.335513e-04,
4.524495e-01,
-6.044879e-03,
1.290184e-01,
-1.025114e-01,
-8.765981e-02,
1.440153e-01,
3.304075e-02,
1.913978e-01,
-6.044945e-03,
2.699741e-02,4.950957e-02,-4.791541e-02,-4.597136e-02,4.833737e-02,2.710580e-02,-4.648254e-02,-4.857934e-02,-3.068895e-02,-4.485538e-02,1.760432e-03,-6.334816e-03,-3.054036e-03,-5.529110e-03,2.171513e-02,-3.899841e-02,7.696508e-03,-1.625439e-02,4.176298e-02,-1.949320e-02,
-5.851361e+00,8.568424e-01,1.211368e+00,7.461651e-01,3.172957e-02,7.762694e-01,5.214791e-01,5.973903e-01,4.602355e-01,-4.442797e-01,7.662212e-01,-3.682439e-01,-2.715664e-03,7.505633e-01,4.832210e-01,5.030203e-01,1.579925e+00,-2.383666e-02,4.442167e-01,-3.340038e-02,
1.427390e-02,4.526273e-02,-2.281367e-02,-4.642046e-02,2.293486e-03,2.293130e-02,3.790229e-02,-4.448013e-02,-1.616766e-02,-2.345791e-02,-4.266863e-02,-3.233779e-02,-2.707959e-02,4.837066e-02,-1.634517e-02,-2.575384e-02,-2.155610e-02,-2.350678e-02,1.314444e-02,2.998690e-02,
-3.232535e-01,-3.767973e-01,7.952507e-01,1.883135e+00,7.125883e-03,-2.734469e-01,-6.111187e-01,2.873646e-01,-1.612850e+00,-2.271034e-01,4.827569e-01,-1.202822e-01,4.116772e-03,2.941965e+00,5.255741e-01,7.846407e-01,1.258519e+00,3.775885e+00,1.852891e-01,2.301903e-02,
-6.885234e+00,9.630767e-01,1.141361e+00,2.328153e+00,6.970739e-03,4.942985e-01,5.112326e-01,3.838556e-01,5.719887e-01,-2.743901e-01,9.537801e-01,-2.294709e-01,-9.163346e-03,8.867742e-01,6.281554e-01,9.844012e-01,1.058563e+00,3.178040e-02,8.666603e-02,-2.499403e-02,
-6.470379e+00,9.693330e-01,1.260914e+00,1.009723e+00,3.080607e-02,7.022176e-01,6.931815e-01,4.695734e-01,6.570599e-01,-3.146632e-01,9.572901e-01,-3.964972e-01,2.395920e-02,9.970592e-01,4.098321e-01,9.568578e-01,1.335474e+00,-3.640554e-02,3.876106e-01,3.111256e-02,
-3.231358e-01,-2.476050e-01,2.184455e-01,-2.092263e+00,3.841031e-02,-9.072214e-01,-6.716704e-02,1.217511e-01,-3.352327e-01,4.531974e-01,-4.402760e-01,4.541330e-01,9.839037e-03,-2.785157e-01,-2.076685e+00,3.866223e-02,-5.302360e-02,-6.080977e+00,-4.934027e-01,2.555047e-02,
7.911126e+00,-7.951344e-01,-9.747403e-01,-2.559525e+00,9.294857e-03,-3.874630e-01,-2.372389e-01,-2.611318e-02,-1.315290e-01,7.504559e-01,-6.921215e-01,7.216730e-01,-2.313057e-02,-6.764172e-01,-9.728005e-01,-8.134186e-01,-8.863634e-01,-1.532788e-02,1.465420e-01,-2.506444e-02,
-6.583690e+00,7.771042e-01,1.270045e+00,8.850999e-01,1.735171e-03,7.117720e-01,6.388962e-01,5.660436e-01,6.959175e-01,-3.630664e-01,7.192012e-01,-3.767092e-01,8.843340e-03,9.848022e-01,3.672448e-01,7.684524e-01,1.384481e+00,-1.823835e-02,3.337529e-01,3.398116e-02,
2.396827e-02,-1.124222e-02,-4.760129e-02,-3.184006e-02,-4.340696e-02,-4.887032e-02,-6.920821e-03,3.699180e-02,2.654241e-03,-5.250181e-03,-6.011502e-03,-2.653188e-02,-3.659762e-02,-2.507331e-02,-2.418723e-02,2.512338e-03,2.118588e-02,1.932457e-02,7.105621e-03,4.012824e-02,
-3.781532e+00,-4.820166e+00,3.359119e+00,9.839209e-01,2.121568e-03,2.484063e+00,2.282943e+00,-3.724290e+00,-3.248162e+00,4.000146e-01,-2.790478e+00,4.314783e-01,-3.658939e-02,1.700240e+00,2.038200e+00,1.815581e+00,-1.686805e+00,-2.163812e+00,2.108349e+00,1.608649e-02,
-4.968699e-02,3.124166e-02,3.948411e-02,2.948482e-02,-3.708229e-02,-2.888704e-02,-3.131787e-02,-1.560336e-02,-3.914994e-02,-4.453020e-02,1.910218e-02,6.453427e-03,3.878056e-02,2.439365e-02,3.890571e-02,-3.954244e-02,-2.298498e-02,1.715951e-02,1.057816e-02,3.399776e-02,
-6.645941e+00,8.924501e-01,1.312051e+00,8.398201e-01,-9.463491e-03,6.670216e-01,6.615511e-01,4.985314e-01,6.892531e-01,-3.622277e-01,8.846225e-01,-3.791266e-01,1.906103e-02,9.798757e-01,4.131201e-01,8.432754e-01,1.340041e+00,-1.039710e-02,3.851572e-01,4.987414e-02,
-5.549911e+00,9.752248e-01,1.365908e+00,1.431167e-01,-2.679084e-02,8.163062e-01,7.259482e-01,6.466078e-01,5.618814e-01,-3.896318e-01,6.931494e-01,-3.910351e-01,3.138272e-02,8.458570e-01,3.636138e-01,6.124445e-01,1.557476e+00,-6.034401e-02,3.839191e-01,-3.448230e-02,
-1.801786e+00,-1.559182e-01,2.697013e-01,-7.174788e+00,4.546032e-02,1.116548e-01,6.719037e-01,-4.023498e-01,3.436254e-01,4.956423e-01,8.920748e-01,4.382615e-01,3.750569e-02,4.563079e-01,-2.694150e+00,9.504701e-01,-6.931232e-01,1.633692e+00,-1.141515e+00,-1.520748e-02,
-1.233728e+00,1.506090e-01,-3.335825e-01,-5.220208e-01,1.347199e-04,3.993531e-01,4.864121e-02,1.343018e-01,-1.301020e-01,5.958404e-02,-3.020918e-01,-2.788931e-02,-2.175976e-03,-2.961481e-01,9.038281e-02,-2.641226e-01,1.062494e-01,-2.044613e-01,1.698109e-01,3.505626e-02,
-2.502996e-02,-2.426985e-02,3.601311e-02,-5.251642e-02,-2.841930e-02,8.588402e-03,-3.256658e-02,1.288790e-03,-3.592862e-02,-1.723940e-02,7.787485e-03,-2.504951e-02,-7.146805e-03,2.266527e-02,-4.192403e-02,-4.707299e-02,-4.562290e-02,1.989070e-02,-2.198592e-02,-1.517035e-02,
6.058539e-01,1.576005e-01,-2.517473e-01,-1.175141e+00,-5.997932e-03,-7.310906e-01,-1.177810e-01,-2.162312e-01,-7.038016e-01,3.912655e-01,-1.320673e+00,3.910884e-01,3.178350e-02,-4.162882e-01,-2.073886e+00,-3.177502e-01,6.993775e-01,-6.359231e+00,2.376226e-01,4.296694e-02,
-3.521419e+00,-2.676564e+00,1.774568e-01,2.573205e-01,1.780395e-03,-1.155674e+00,-1.286560e+00,-5.247822e-01,7.342629e-01,4.330430e-01,2.441660e-02,3.675067e-01,1.471010e-02,-2.263876e+00,8.289064e-01,-2.245548e+00,1.023132e+00,-5.947003e-01,-1.659218e+00,-4.492141e-02,
-9.932498e-02,7.416291e-01,1.179068e+00,-1.070712e+01,-2.666193e-02,-3.303050e-02,2.616610e-01,1.006445e+00,-2.854534e-01,3.949898e-01,7.538868e-01,3.261444e-01,-1.680713e-02,-3.962719e-01,-2.016111e+00,7.083632e-01,-2.915143e-02,-1.064883e+00,-1.440144e+00,1.195783e-02,
0.000000e+00,
-7.065543e-02,
-6.039612e-03,
-5.870891e-01,
7.279857e-02,
3.115055e-02,
6.492431e-01,
6.106627e-01,
5.629521e-02,
-6.165968e-03,
-4.345120e-01,
-8.811169e-03,
5.387478e-02,
-7.082864e-02,
1.414192e-01,
-2.369422e-02,
-6.045184e-03,
8.420350e-01,
5.739623e-01,
-1.967474e-01,
-1.690722e-02,1.522124e+00,-2.814897e-02,1.178815e+01,1.330583e+00,1.476755e+00,-3.011580e+00,-1.063803e+00,1.535107e+00,2.343962e-02,1.306185e+01,1.026848e-02,1.548463e+00,1.516937e+00,-3.621922e+00,-1.101921e+00,-4.052329e-03,-4.176538e+00,-6.247902e+00,-4.033259e+00,
7.406900e-03,-1.487843e+00,-5.078809e-02,-1.184463e+01,-1.313949e+00,-1.523457e+00,3.024782e+00,1.068545e+00,-1.515302e+00,1.861520e-02,-1.311277e+01,2.462636e-03,-1.503765e+00,-1.551655e+00,3.662801e+00,1.148445e+00,4.025336e-02,4.199334e+00,6.293447e+00,4.065704e+00,
-2.309527e-01,
2.309784e-01,
