Neural Network File Format by Kyle Julian, Stanford 2016
5,5,2,20,
5,20,20,20,20,2,
0
12.0, -3.141592653589793, -3.141592653589793,-1.2566370614359172,18.0
350.0, 3.141592653589793, 3.141592653589793,1.2566370614359172,24.0
58.91827212994, 0.0, 0.0, -0.15824155773913484, 21.0, 0.0,
338.0, 6.2831853071795862, 6.2831853071795862, 2.5132741228718345, 6.0, 1.0,
-4.499845e-01,8.298746e-01,4.512508e-01,-3.522852e-01,3.268032e-02,
-1.345710e-01,-6.597836e-03,6.017779e-01,-2.189392e-01,-9.907422e-04,
7.819755e-01,-4.077354e-01,2.397366e-01,-1.195029e-01,-6.073600e-02,
8.087610e-02,-4.088764e-02,-6.635323e-01,3.856291e-01,-3.754796e-02,
-1.656906e-01,7.850899e-01,3.479774e-03,-4.468172e-01,5.203399e-02,
1.865205e-01,1.020022e+00,1.745496e-01,-3.695866e-01,9.660194e-03,
8.892889e-01,5.200204e-01,-3.265249e-01,2.275067e-01,4.532465e-02,
1.183490e+00,5.006458e-01,-2.144302e-01,-2.013541e-01,-7.643181e-02,
-1.286066e+00,4.818186e-03,-3.017499e-01,-1.284224e-01,5.584500e-02,
4.145012e-01,8.489477e-02,-5.297526e-01,1.860037e-01,4.057948e-02,
3.482563e-01,1.371072e+00,-7.156359e-01,-2.278511e-01,-4.963300e-03,
-8.653592e-01,-4.459974e-01,-2.108813e-01,8.053704e-02,1.331135e-01,
-5.482804e-02,-5.256686e-01,-1.555013e-01,-4.685211e-01,4.669115e-02,
-1.694521e+00,5.239846e-01,-3.821706e-02,-2.471547e-01,1.602960e-01,
5.096128e-01,1.039984e-01,2.345235e-01,-4.930321e-01,-1.030010e-01,
1.808151e-01,6.299222e-01,-4.419233e-01,1.737368e-01,-9.088345e-04,
-8.442884e-01,6.787413e-01,-5.281618e-01,1.164699e-01,1.816870e-02,
8.922300e-02,-1.858318e-02,-1.198497e+00,1.339613e-01,1.429342e-02,
5.553739e-01,-3.124407e-01,5.573524e-01,1.774697e-01,1.680995e-01,
1.647111e-01,-1.437248e+00,-9.209096e-02,5.976820e-01,6.066812e-03,
-1.018477e-01,
-1.958376e-01,
1.447876e-01,
1.116143e-02,
3.257478e-01,
1.871478e-01,
2.545587e-01,
-8.819993e-03,
-3.393425e-02,
2.554478e-01,
-6.419829e-02,
2.619027e-01,
2.410793e-01,
1.835549e-01,
4.247459e-01,
4.195358e-03,
1.464851e-01,
9.150756e-02,
2.228598e-01,
3.982839e-01,
5.554686e-01,-4.678782e-01,-1.970831e-02,6.378552e-01,-3.813819e-01,-1.222396e-01,1.140624e-01,-2.753996e-01,-6.751903e-01,2.732635e-03,1.655378e-01,-2.028407e-01,1.322216e-01,-4.514707e-02,5.459949e-01,2.070684e-02,-2.135158e-01,-1.742443e-01,2.920959e-01,-1.147177e-01,
-1.269172e-01,1.212623e-01,-9.778459e-02,-3.438643e-01,-2.185293e-01,-3.121139e-01,3.451902e-01,3.714411e-02,3.816714e-01,-3.128191e-01,-8.172030e-01,-2.090472e-01,1.208256e-01,-1.577783e-01,6.373715e-02,-3.436147e-01,-7.702190e-02,3.682073e-01,9.990044e-02,8.460831e-02,
-6.523491e-02,-5.606501e-01,6.412448e-01,2.224821e-01,9.074198e-02,9.035443e-02,2.481019e-01,1.849541e-01,5.416182e-01,7.384233e-02,6.305266e-01,5.016608e-02,2.030730e-01,4.129855e-02,-2.877988e-01,1.280885e-01,6.800791e-02,1.022427e-01,2.097160e-01,4.102580e-01,
-1.024169e-01,-4.888125e-01,-2.614776e-01,-4.422719e-01,-1.474621e-01,2.552762e-02,6.487032e-02,-3.842740e-02,5.103473e-01,2.953561e-01,-4.771940e-01,-2.527469e-01,1.540404e-01,-2.836951e-01,5.603745e-01,-1.772725e-01,3.215949e-01,1.041376e-01,2.242222e-01,-2.260875e-01,
1.997036e-01,5.039652e-01,-6.650102e-01,-1.652116e-01,-9.262095e-02,-1.813135e-01,3.475824e-01,3.178465e-01,1.857693e-01,-1.067788e-01,2.403376e-01,2.864283e-01,-3.630409e-01,-2.999752e-01,1.150720e-01,1.004558e-01,-3.502918e-01,7.924881e-02,-1.616125e-01,-3.280752e-01,
3.731767e-02,2.968474e-02,-4.736966e-02,-4.397988e-02,-4.561569e-02,9.771088e-03,-2.937429e-02,-4.008580e-02,4.578598e-03,-8.502244e-03,1.646183e-02,-6.070812e-02,1.580684e-02,3.860286e-02,-4.254382e-02,-8.788680e-03,1.478672e-02,-2.351069e-02,-4.647689e-02,2.263293e-02,
4.135261e-05,-4.147015e-01,2.729355e-01,-4.313177e-01,2.669656e-01,-4.336592e-01,-1.965773e-01,-1.943829e-01,3.302278e-01,2.101220e-01,3.298464e-01,2.044463e-01,-9.815976e-02,-7.442308e-02,1.366831e-01,6.288501e-02,4.543093e-01,-4.314588e-01,6.425681e-02,8.827101e-02,
-1.910703e-01,7.401285e-01,-4.940903e-01,-3.666056e-01,5.239605e-02,-5.359487e-01,-2.430007e-01,1.008687e-01,3.366987e-01,7.326221e-01,4.246952e-01,-5.616383e-02,3.838981e-02,3.138918e-01,3.784941e-01,-1.987321e-01,9.253942e-02,-2.856419e-01,1.893228e-02,1.739093e-01,
-1.047545e-01,7.686405e-01,-1.690094e-01,1.436612e-01,-5.693289e-01,3.561505e-01,-3.971509e-01,5.038271e-02,2.320242e-02,3.028540e-01,1.613032e-01,2.206728e-02,1.612159e-01,6.775184e-02,1.332188e-01,2.525630e-01,1.488814e-02,-1.826327e-01,6.077968e-02,2.213660e-01,
-4.791889e-02,-9.467612e-03,-1.131470e-02,-3.387778e-02,-1.600149e-02,-4.198861e-02,-8.038942e-03,-1.272641e-02,-3.868413e-03,2.615454e-02,-2.158339e-03,1.321443e-03,-2.636498e-02,-9.723326e-04,-5.045213e-02,-1.963948e-02,-6.457340e-03,-2.833518e-02,-3.465897e-02,1.781786e-02,
-3.658247e-03,3.631738e-03,1.536937e-02,5.130218e-04,-2.931061e-03,-4.424996e-04,-2.860152e-02,-4.041792e-02,-9.644593e-03,5.244014e-03,2.537812e-02,1.942761e-03,-5.590186e-03,2.490314e-02,-1.261765e-02,1.293935e-02,-5.267363e-02,3.061066e-02,-5.223318e-02,-2.760240e-02,
4.830179e-01,-1.033808e+00,5.198687e-02,-3.247960e-01,1.241276e-01,1.446992e-01,-6.560924e-02,-4.980074e-01,1.799719e-01,4.162728e-01,1.780002e-02,-1.452111e-02,6.302392e-02,-2.893922e-01,-8.978169e-03,-4.552567e-01,3.872914e-01,-2.118682e-01,4.460661e-01,-3.814417e-01,
-1.510448e-01,2.926768e-01,-4.215401e-01,-3.624184e-01,2.790230e-01,1.680299e-01,-5.355809e-01,8.203703e-02,-1.506884e-01,2.442038e-01,1.358697e-01,2.373429e-01,-3.499489e-01,-9.087999e-02,1.228842e-01,8.284624e-01,-2.755894e-01,2.689373e-01,-3.240198e-03,9.466874e-03,
1.445010e-02,3.914132e-01,-1.582806e-01,-2.612024e-01,7.435779e-02,-4.252752e-01,3.291147e-01,3.988945e-01,-3.153518e-01,3.116405e-01,-7.502814e-05,-1.139259e-01,3.450017e-01,1.870940e-01,6.314598e-03,5.601020e-01,-4.499916e-01,-4.425938e-01,-1.958327e-01,8.076225e-02,
-6.025418e-02,1.048424e+00,-5.395359e-01,-6.678407e-01,7.806379e-01,-6.611008e-01,-4.118646e-01,9.707861e-01,3.694680e-01,5.756431e-02,-4.421104e-01,3.426553e-01,-3.636323e-02,-2.953475e-01,-1.345810e-01,2.201777e-01,6.927597e-01,-2.565381e-01,-1.790325e-02,8.944789e-02,
1.126537e+00,-5.904940e-01,-3.913574e-01,-5.896069e-02,8.691058e-02,-2.571074e-01,1.532022e-01,-1.027470e-01,9.045592e-03,8.584931e-02,-9.824800e-02,9.895536e-02,1.582350e-01,-3.198750e-01,1.271660e-01,6.934034e-01,-1.194138e-01,4.044178e-01,2.682048e-02,3.964547e-02,
2.788353e-01,-8.099799e-02,4.126934e-01,-4.064175e-01,2.508997e-02,-5.850607e-02,5.691605e-02,-2.185503e-01,4.675147e-01,-4.469362e-01,8.205501e-01,4.742270e-02,1.369193e-01,-4.295131e-03,3.275463e-01,3.191543e-02,-2.435401e-01,9.071697e-02,3.489896e-01,2.963867e-01,
-1.153230e-02,-4.058393e-02,-2.771291e-03,-5.725461e-02,-3.746481e-02,-1.151860e-02,-2.251320e-02,2.902917e-02,2.086222e-02,-9.005885e-03,2.849810e-02,-2.766756e-02,6.516492e-03,-1.734801e-02,-2.306379e-02,8.378191e-03,3.537108e-02,4.181038e-03,-1.873155e-02,1.474194e-02,
4.180385e-01,-8.567075e-04,-3.202949e-01,3.237841e-01,4.203722e-01,1.117795e-01,4.351580e-01,-8.484094e-02,1.916804e-01,3.910096e-01,-1.828281e+00,-2.477319e-01,3.379757e-01,-3.354731e-01,6.326240e-01,1.346434e+00,-9.026850e-02,4.023458e-02,2.446808e-01,-3.477763e-02,
2.420431e-01,1.398075e-01,-1.226187e-01,1.607793e-02,5.221878e-01,2.836249e-01,-9.105919e-01,9.899425e-01,-5.935481e-01,-1.049466e-01,-1.526444e-03,5.262518e-02,-3.346635e-01,-5.097929e-01,-1.967212e-01,4.414257e-01,-2.226981e-01,2.158605e-01,2.021460e-01,-2.382820e-01,
-7.518954e-02,
1.132194e-01,
-1.999126e-02,
2.083285e-01,
2.031886e-01,
-8.967168e-03,
2.615099e-02,
-1.517534e-01,
-2.198597e-02,
-5.925418e-03,
-1.252845e-02,
2.111186e-01,
-2.551991e-02,
1.456555e-01,
5.349997e-02,
2.225943e-02,
1.107788e-01,
-1.304040e-02,
-1.104702e-01,
-3.142583e-02,
5.176496e-02,-8.287647e-02,3.700220e-03,-2.459662e-01,8.633183e-01,-4.016031e-02,1.085056e+00,5.352998e-02,1.199109e+00,2.672066e-03,1.697667e-03,-4.666102e-01,8.095463e-01,-3.315913e-01,-5.667157e-01,-1.058701e+00,-3.504928e-01,-2.257894e-02,9.119800e-01,1.411538e-01,
1.782325e+00,-2.751565e+00,-1.476408e-01,1.068539e+00,2.882246e-01,-5.307966e-04,-2.730712e-01,1.066068e+00,1.365375e+00,-4.375912e-02,-3.650910e-02,7.780838e-01,4.376622e-01,5.696759e-01,4.095426e-01,6.422244e-01,-2.840688e-01,-3.198400e-02,9.799814e-03,8.124331e-01,
1.358891e+00,-1.214993e-01,-5.099013e-01,6.800733e-01,9.020463e-01,-4.327112e-02,4.277745e-02,1.693206e+00,6.765165e-01,4.781838e-02,-4.219253e-02,2.754152e-01,-2.057523e+00,1.097979e-01,1.722748e-01,2.066408e-01,-2.586400e-01,4.235878e-02,5.523297e-01,-7.965603e+00,
1.216765e+00,4.438400e-01,4.613809e-02,3.854701e-02,-1.964677e-01,5.888710e-03,6.341752e-01,-9.224749e-01,1.681181e-01,1.102144e-02,2.860620e-02,-2.134257e-01,2.555616e-01,-4.256632e-01,9.469206e-01,2.545629e-01,-2.105576e-01,2.580520e-02,-1.598769e-01,-1.992911e-01,
-4.769995e-02,-2.272112e-02,1.932777e-03,3.368653e-02,-1.598676e-02,-4.584762e-02,5.178729e-03,-5.070429e-02,-4.621298e-03,-1.073494e-02,-1.264974e-02,-3.860207e-02,-3.337027e-02,-3.037588e-02,2.163853e-02,1.058874e-02,-5.976011e-04,-5.121724e-02,-4.852049e-02,4.433635e-02,
1.336656e+00,5.402362e-01,-3.726048e-01,4.505454e-01,-1.668005e+00,8.686154e-03,-6.935500e-02,3.859169e-01,6.176759e-01,-3.536168e-02,1.904299e-02,8.110156e-02,4.220208e-01,4.823274e-01,-5.297012e-01,9.611772e-02,-1.545154e-01,-3.137078e-02,3.947502e-01,2.066784e+00,
1.326423e-01,-7.258300e-02,-2.993729e-01,4.735131e-01,-8.650239e-01,-3.763447e-03,1.096175e+00,4.445288e-01,1.298410e-01,-2.436940e-02,-4.119314e-02,-4.009267e-03,-5.258869e-01,7.698426e-01,-1.502210e-01,-2.615667e-01,-1.632411e-01,-4.204374e-02,-3.784025e-02,1.725463e+00,
2.130387e-01,1.461087e-01,-2.912548e-01,5.613919e-01,-1.242735e+00,7.282748e-03,3.531258e-01,1.528520e+00,1.627579e-01,1.983757e-02,-4.139887e-02,-5.461378e-01,-2.373019e-01,-6.564419e-01,-1.480895e+00,2.426581e-01,-2.111168e-01,-3.352707e-02,1.386959e+00,-4.977412e+00,
3.469439e-01,7.755264e-01,-2.940677e-01,-3.026051e-02,-1.596043e+00,2.582607e-02,-2.415398e-01,4.187615e-01,8.445934e-01,-1.555245e-02,-4.679252e-03,7.917500e-01,1.513127e+00,1.292879e+00,1.678509e+00,-6.745260e-01,-1.025966e-01,1.369906e-02,3.881404e-01,-1.150592e+00,
-3.825517e-01,1.077030e+00,3.384728e-01,5.106469e-01,9.099644e-01,1.425276e-02,2.789808e-01,-5.277982e-01,-3.432888e-01,-4.590941e-02,2.404796e-04,2.383629e-01,-7.519010e-01,-5.543504e-01,1.468337e-01,3.889293e-01,6.666326e-01,6.412604e-03,8.494443e-01,1.246855e+00,
-3.445213e-01,1.641273e+00,-3.734240e-01,1.056705e+00,-1.793178e-01,-1.093784e-02,7.611246e-01,9.469039e-01,-2.167153e-02,-3.428479e-02,-5.685769e-03,4.649989e-01,7.854069e-01,-6.059605e-01,3.622203e-01,1.838272e-01,-1.388682e-01,4.302130e-02,-2.797530e-01,1.953208e+00,
-5.691409e-01,8.255822e-01,4.739945e-01,4.563284e-01,1.090168e+00,4.305295e-02,3.151021e-01,-6.127997e-01,-3.527044e-01,-4.555971e-02,-3.499363e-02,2.141686e-01,-6.634359e-01,-6.034753e-01,2.375276e-01,4.428254e-01,5.920243e-01,1.648661e-02,7.663689e-01,1.506463e+00,
2.445568e-02,-3.857834e-02,-2.277156e-03,-3.647883e-03,3.651797e-02,1.836990e-03,4.157175e-02,-5.166179e-02,2.509409e-02,2.589608e-02,3.124103e-02,-4.799843e-02,-4.907386e-02,-4.868376e-02,-1.510744e-02,-1.600792e-02,-4.744741e-02,-4.957436e-02,-2.270905e-02,2.750085e-02,
1.246007e-02,6.657904e-02,-4.312654e-01,1.279965e-01,-1.435783e+00,-3.736576e-02,5.528098e-01,-4.098860e-01,7.743123e-01,-3.307084e-02,-2.502816e-02,6.832484e-02,1.378992e+00,7.029343e-01,4.832140e-01,-2.269393e-01,-9.601269e-03,-1.716711e-02,-5.285994e-04,2.173927e-01,
-3.731767e-01,1.524359e+00,3.498604e-01,1.201022e-01,2.089436e-01,-3.131288e-02,1.065477e-01,6.620490e-01,1.303865e+00,2.047994e-02,-4.248407e-02,3.118982e-01,1.062524e+00,-2.908377e-02,-8.217921e-01,2.642286e-01,-2.561335e-01,-3.653317e-03,3.442363e-02,1.516536e+00,
-1.914313e+00,1.075714e+00,-4.584329e-01,7.454567e-02,-5.124264e-01,1.292347e-02,8.587082e-01,-2.187867e-01,3.603127e-01,3.117052e-02,-2.606102e-02,7.196348e-01,5.511650e-01,3.051489e-01,4.957039e-01,3.875159e-01,-1.623001e-01,-3.528314e-02,1.464526e-01,1.796372e+00,
1.832683e+00,-8.820258e-01,-6.789191e-02,2.025225e-01,-2.190166e-01,-1.843688e-02,-6.188203e-01,5.190800e-01,7.446298e-01,-3.951135e-02,3.241900e-02,3.558295e-01,1.629779e+00,5.215561e-01,-7.767130e-01,4.759215e-01,-2.343662e-01,5.665248e-03,1.464506e-03,-5.166080e+00,
-6.450121e-01,1.236828e+00,-2.066598e-01,2.800724e-01,4.752811e-01,5.540732e-06,-5.160021e-01,5.548103e-01,-8.634074e-01,-1.052758e-02,3.377337e-02,-4.195817e-01,-2.156685e+00,2.308386e-01,-7.720525e-01,6.644816e-01,-3.649452e-01,-8.348608e-03,-3.190911e-02,-8.549530e+00,
-9.617449e-02,2.716094e-01,-5.531377e-02,-2.952774e-01,-1.199514e+00,1.785587e-02,9.679103e-02,-3.401509e-01,7.547961e-01,3.881645e-02,-4.471406e-02,5.644894e-01,-4.042872e-01,8.914803e-01,4.811922e-02,3.402387e-01,-6.746920e-01,1.075942e-02,1.628247e-01,1.264716e+00,
-3.426694e-02,-1.111616e-02,-4.624045e-02,-1.703276e-02,1.862589e-02,4.050979e-02,7.606310e-03,-3.387040e-02,2.186321e-02,1.674241e-02,2.424881e-02,-5.351644e-03,-4.741475e-03,8.311395e-03,-2.695279e-02,-1.010912e-02,-3.502032e-02,-3.859719e-02,3.624495e-03,-5.179565e-02,
-1.929779e-01,
-4.640383e-01,
1.053646e-01,
-3.119041e-02,
-6.042837e-03,
1.090622e-01,
1.227042e-01,
3.422515e-01,
2.877124e-01,
4.175055e-01,
1.005058e-02,
4.256389e-01,
-6.044879e-03,
1.866609e-01,
-1.504295e-01,
-1.637996e-02,
1.674473e-01,
8.483326e-02,
2.039087e-01,
-6.044945e-03,
2.556517e-02,4.815555e-02,-4.791541e-02,-4.597136e-02,4.833737e-02,2.536969e-02,-4.793129e-02,-4.857934e-02,-3.068895e-02,-4.571315e-02,-1.312731e-05,-7.046835e-03,-3.054036e-03,-5.529110e-03,2.040539e-02,-4.035214e-02,7.696508e-03,-1.625439e-02,4.006513e-02,-1.949320e-02,
-7.577732e+00,7.085992e-01,1.194425e+00,-4.184496e-01,3.172957e-02,6.688768e-01,4.233108e-01,7.824358e-01,4.161409e-01,-4.475750e-01,7.952272e-01,-3.609842e-01,-2.715664e-03,6.856082e-01,3.428120e-01,4.527605e-01,1.455181e+00,-2.348301e+00,5.510895e-01,-3.340038e-02,
1.427390e-02,4.526273e-02,-2.281367e-02,-4.642046e-02,2.293486e-03,2.293130e-02,3.790229e-02,-4.448013e-02,-1.616766e-02,-2.345791e-02,-4.266863e-02,-3.233779e-02,-2.707959e-02,4.837066e-02,-1.634517e-02,-2.575384e-02,-2.155610e-02,-2.350678e-02,1.314444e-02,2.998690e-02,
-1.388861e+00,-5.618208e-01,9.756649e-01,1.268528e+00,7.125883e-03,-4.080456e-01,1.686183e-01,3.368616e-02,-1.258977e+00,-3.390770e-01,3.915467e-01,-1.800227e-01,4.116772e-03,2.824142e+00,9.206290e-01,8.354599e-01,1.085275e+00,2.618505e+00,4.149672e-01,2.301903e-02,
-8.941395e+00,9.026420e-01,9.695722e-01,2.975548e+00,6.970739e-03,6.901702e-01,6.915637e-01,4.686407e-01,5.555540e-01,-1.493496e-01,9.907554e-01,-1.037026e-01,-9.163346e-03,9.788021e-01,2.690029e-01,9.573042e-01,7.501861e-01,-2.292844e+00,5.035313e-02,-2.499403e-02,
-7.945877e+00,9.720737e-01,1.116548e+00,9.391763e-01,3.080607e-02,1.000174e+00,9.144208e-01,6.570566e-01,6.135252e-01,-2.055738e-01,9.872116e-01,-2.851028e-01,2.395920e-02,9.870868e-01,1.557729e-01,8.282624e-01,1.081769e+00,-2.360835e+00,4.426947e-01,3.111256e-02,
-4.168161e-01,-1.922420e-01,5.118306e-01,-1.923697e+00,3.841031e-02,-8.926064e-01,-1.046241e-01,2.033772e-01,-4.310107e-01,4.759285e-01,-4.813148e-01,4.793485e-01,9.839037e-03,-2.473848e-01,-1.698481e+00,4.939885e-01,-1.020015e-01,-3.788512e+00,-2.277020e-01,2.555047e-02,
1.025567e+01,-7.532473e-01,-6.557816e-01,-2.111192e+00,9.294857e-03,-3.926911e-01,-2.624957e-01,3.195284e-02,1.201944e-02,7.624024e-01,-8.502709e-01,7.257687e-01,-2.313057e-02,-5.358613e-01,-5.575708e-01,-7.951060e-01,-6.718443e-01,2.306876e+00,3.449015e-01,-2.506444e-02,
-7.699634e+00,5.730483e-01,1.205922e+00,4.224680e-01,1.735171e-03,8.754370e-01,7.548999e-01,8.158256e-01,7.324721e-01,-3.271696e-01,7.345688e-01,-3.516776e-01,8.843340e-03,1.046772e+00,6.381310e-02,6.057152e-01,1.204466e+00,-2.342686e+00,3.554848e-01,3.398116e-02,
2.396827e-02,-1.124222e-02,-4.760129e-02,-3.184006e-02,-4.340696e-02,-4.887032e-02,-6.920821e-03,3.699180e-02,2.654241e-03,-5.250181e-03,-6.011502e-03,-2.653188e-02,-3.659762e-02,-2.507331e-02,-2.418723e-02,2.512338e-03,2.118588e-02,1.932457e-02,7.105621e-03,4.012824e-02,
-3.147770e+00,-5.098898e+00,3.354009e+00,8.672097e-01,2.121568e-03,2.378222e+00,1.476922e+00,-3.535904e+00,-3.290134e+00,4.031510e-01,-2.134714e+00,4.338830e-01,-3.658939e-02,2.191969e+00,1.982358e+00,1.609471e+00,-1.560521e+00,-2.425622e+00,2.019063e+00,1.608649e-02,
2.283720e+00,2.156854e-01,-2.306585e+00,1.393590e+00,-3.708229e-02,-3.655094e-01,3.237503e-01,3.799949e-01,-1.587271e+00,-2.204846e-01,2.038094e-01,-2.933290e-02,3.878056e-02,6.530201e-01,4.188628e-01,-2.018828e-01,1.123463e+00,-3.334297e+00,1.342454e+00,3.399776e-02,
-8.283003e+00,6.494883e-01,1.185927e+00,4.848065e-01,-9.463491e-03,7.625340e-01,7.414467e-01,6.951714e-01,7.211317e-01,-3.430426e-01,9.223777e-01,-3.698601e-01,1.906103e-02,1.045186e+00,3.980368e-02,7.335696e-01,1.096395e+00,-2.334817e+00,3.836044e-01,4.987414e-02,
-5.394635e+00,9.742060e-01,1.418032e+00,-6.088413e-01,-2.679084e-02,1.076212e+00,8.073074e-01,9.283206e-01,4.859106e-01,-3.659288e-01,5.861582e-01,-3.628986e-01,3.138272e-02,7.139636e-01,1.039637e-01,4.349217e-01,1.527459e+00,-2.384788e+00,4.712659e-01,-3.448230e-02,
-3.247555e+00,1.863918e-02,5.523538e-01,-7.750138e+00,4.546032e-02,1.537213e-01,9.482818e-01,-4.249983e-01,3.374234e-01,5.374181e-01,1.156697e+00,4.594311e-01,3.750569e-02,8.494710e-01,-3.101104e+00,1.325073e+00,-6.151311e-01,1.741423e+00,-1.435438e+00,-1.520748e-02,
-4.149967e+00,-2.462852e-01,-1.245563e+00,-3.065974e+00,1.347199e-04,1.445055e+00,-7.415924e-01,4.419327e-01,7.952683e-02,1.704961e-01,-6.041584e-02,-2.836101e-04,-2.175976e-03,-1.095654e+00,2.260125e-01,-1.205440e+00,3.598109e-01,-6.059478e-01,3.313532e-01,3.505626e-02,
-2.502996e-02,-2.426985e-02,3.601311e-02,-5.251642e-02,-2.841930e-02,8.588402e-03,-3.256658e-02,1.288790e-03,-3.592862e-02,-1.723940e-02,7.787485e-03,-2.504951e-02,-7.146805e-03,2.266527e-02,-4.192403e-02,-4.707299e-02,-4.562290e-02,1.989070e-02,-2.198592e-02,-1.517035e-02,
-1.130320e-01,3.451099e-01,2.308065e-01,1.814451e+00,-5.997932e-03,-4.477335e-01,-1.777648e-01,-3.689602e-02,-9.602438e-01,4.213873e-01,-1.440016e+00,4.484602e-01,3.178350e-02,-4.658230e-01,-2.140158e+00,2.718210e-01,1.146163e+00,-7.563582e+00,1.046103e+00,4.296694e-02,
-3.737558e+00,-2.816548e+00,3.641830e-01,8.729005e-01,1.780395e-03,-8.900715e-01,-9.822448e-01,-9.154109e-01,9.047647e-01,3.090696e-01,1.276466e+00,2.430446e-01,1.471010e-02,-2.138586e+00,9.850915e-01,-2.163589e+00,1.373897e+00,-3.681512e+00,-1.096299e+00,-4.492141e-02,
-4.660696e-01,1.198897e+00,1.455905e+00,-8.525361e+00,-2.666193e-02,3.784290e-01,6.724014e-01,9.973771e-01,-4.681206e-01,4.300141e-01,8.961862e-01,3.118757e-01,-1.680713e-02,-1.887828e-01,-2.013293e+00,3.135543e-01,-4.064763e-01,-3.153990e-01,-2.162355e+00,1.195783e-02,
-1.525005e-03,
-5.234355e-02,
-6.039612e-03,
-6.564122e-01,
1.872051e-01,
1.176066e-01,
7.451406e-01,
5.900652e-01,
1.253989e-01,
-6.165968e-03,
-4.903252e-01,
-3.184397e-01,
1.199822e-01,
-1.267036e-01,
2.748517e-01,
-1.295844e-01,
-6.045184e-03,
8.460941e-01,
4.094958e-01,
-3.347776e-01,
-1.541203e-02,1.569655e+00,-2.814897e-02,1.037233e+01,1.436142e+00,1.520909e+00,-2.905199e+00,-1.270767e+00,1.595730e+00,2.343962e-02,1.092601e+01,6.860660e+00,1.599949e+00,1.563534e+00,-4.055738e+00,-4.779258e+00,-4.052329e-03,-5.036790e+00,-6.586708e+00,-4.275853e+00,
5.912674e-03,-1.535364e+00,-5.078809e-02,-1.042880e+01,-1.419495e+00,-1.567600e+00,2.918416e+00,1.275519e+00,-1.575914e+00,1.861520e-02,-1.097692e+01,-6.847922e+00,-1.555238e+00,-1.598238e+00,4.096644e+00,4.825798e+00,4.025336e-02,5.059595e+00,6.632262e+00,4.308311e+00,
-2.431134e-01,
2.431517e-01,
