Neural Network File Format by Kyle Julian, Stanford 2016
5,5,2,20,
5,20,20,20,20,2,
0
12.0, -3.141592653589793, -3.141592653589793,-1.2566370614359172,18.0
350.0, 3.141592653589793, 3.141592653589793,1.2566370614359172,24.0
58.91827212994, 0.0, 0.0, -0.15824155773913484, 21.0, 0.0,
338.0, 6.2831853071795862, 6.2831853071795862, 2.5132741228718345, 6.0, 1.0,
-4.488325e-01,6.021982e-01,3.725121e-01,-2.540727e-01,2.926530e-02,
-1.210482e-02,-3.690170e-03,4.431296e-01,-1.667276e-01,-1.556786e-02,
5.346360e-01,-3.432797e-01,2.619331e-01,-1.585778e-01,-4.392419e-02,
7.359153e-02,-3.742233e-03,-5.021627e-01,2.884196e-01,-3.556086e-02,
-2.006207e-01,6.385871e-01,-1.581458e-02,-2.987636e-01,2.576669e-02,
8.386121e-02,7.764251e-01,9.767444e-02,-2.887920e-01,5.736598e-03,
4.043869e-01,5.405974e-01,-1.853692e-01,1.149914e-01,3.667312e-02,
8.222898e-01,4.295920e-01,-1.857600e-01,-1.214740e-01,-5.094022e-02,
-8.742233e-01,-2.351701e-02,-2.304590e-01,-7.440567e-02,3.402869e-02,
3.434331e-01,4.130413e-02,-3.471648e-01,1.095671e-01,2.480478e-02,
2.429241e-01,9.742006e-01,-5.271051e-01,-1.942491e-01,-2.480092e-03,
-8.175070e-01,-4.478634e-01,-5.103743e-02,1.106135e-02,1.114916e-01,
-9.777786e-02,-3.880580e-01,-1.058448e-01,-4.331826e-01,2.967752e-02,
-1.386403e+00,3.787436e-01,-5.050522e-02,-2.631541e-01,1.219231e-01,
1.062258e-01,1.072780e-01,2.737077e-01,-3.264081e-01,-6.047430e-02,
1.305038e-01,4.525458e-01,-3.147272e-01,8.899454e-02,-1.842358e-03,
-3.281105e-01,3.649800e-01,-3.552379e-01,2.238331e-02,-3.229552e-02,
8.525794e-02,1.168858e-01,-1.031294e+00,1.020618e-01,1.599980e-03,
4.509756e-01,-3.544099e-01,3.938429e-01,7.554108e-02,5.220927e-02,
-1.640318e-01,-1.278484e+00,-1.803742e-01,4.827204e-01,-2.096723e-02,
-9.503013e-02,
-1.388510e-01,
1.482939e-01,
-9.677482e-03,
2.572542e-01,
1.501003e-01,
1.321312e-01,
-1.315494e-02,
-1.392377e-02,
1.750787e-01,
-4.489297e-02,
2.458139e-01,
2.267893e-01,
1.703237e-01,
2.723972e-01,
-9.790530e-03,
1.213336e-01,
8.844299e-02,
1.795585e-01,
3.512671e-01,
4.439965e-01,-2.720931e-01,8.087943e-02,6.326804e-01,-4.332912e-01,-1.849644e-02,4.691837e-02,-2.679153e-01,-8.303630e-01,1.640447e-02,2.651136e-01,-9.247301e-02,1.728724e-01,-1.463974e-01,4.175510e-01,2.271705e-01,-2.683066e-01,-2.024602e-01,1.461124e-01,-1.623629e-01,
6.282450e-02,-1.943893e-01,1.849784e-01,-3.106687e-01,-2.084754e-01,-2.351354e-01,3.112465e-01,-1.512622e-01,3.110448e-01,-2.437844e-01,-4.406736e-01,-6.374135e-02,-3.664519e-02,-1.713538e-01,1.286581e-01,-5.294717e-01,-4.308142e-02,3.613870e-01,8.044785e-02,3.014400e-02,
1.726717e-01,-3.160434e-02,5.542796e-01,1.398835e-01,7.970360e-02,1.951946e-01,2.814257e-01,-1.805461e-01,3.469506e-01,-1.455873e-01,5.772567e-01,1.388125e-01,4.279600e-02,2.378611e-02,-5.143006e-02,2.461022e-01,-8.284009e-02,1.825761e-01,2.867081e-01,3.470244e-01,
3.983655e-02,-2.239042e-01,-2.669166e-01,-2.592201e-01,9.528194e-02,-3.168551e-02,6.090514e-03,9.366723e-02,-1.587521e-01,3.222462e-01,-5.316235e-01,1.669849e-02,2.767518e-01,-3.311690e-02,3.087614e-01,-5.559832e-02,2.993393e-01,3.680904e-02,1.423508e-01,-2.216873e-01,
1.530309e-01,5.510425e-01,-7.853162e-01,-1.067691e-01,-7.294466e-03,-1.820678e-01,1.011420e-01,4.763443e-01,2.708120e-01,-4.865534e-02,1.261237e-01,1.583306e-01,-9.115687e-02,-3.462425e-01,1.717771e-01,1.257550e-01,-2.188688e-01,1.588260e-03,-1.234536e-01,-1.980104e-01,
3.731767e-02,2.968474e-02,-4.736966e-02,-4.397988e-02,-4.561569e-02,9.771088e-03,-2.937429e-02,-4.008580e-02,4.578598e-03,-8.502244e-03,1.646183e-02,-6.070812e-02,1.580684e-02,3.860286e-02,-4.254382e-02,-8.788680e-03,1.478672e-02,-2.351069e-02,-4.647689e-02,2.263293e-02,
-1.679395e-01,-4.131047e-01,3.236971e-02,-2.961392e-01,1.462338e-01,-1.459866e-01,-2.404655e-01,-1.426327e-01,-3.148267e-02,2.324422e-01,2.742964e-01,1.339532e-01,-5.402265e-02,2.949901e-02,6.131978e-02,3.637001e-01,3.152921e-01,-3.887372e-01,1.446308e-01,6.934291e-02,
-1.044618e-01,1.143547e+00,-2.869609e-01,-4.542005e-01,1.422998e-01,-6.178319e-01,-1.052759e-01,3.163349e-01,2.162460e-01,3.712232e-01,3.020588e-01,-8.650848e-02,1.345120e-01,2.283878e-01,1.150890e-01,-3.324019e-01,2.911265e-01,-1.773633e-01,2.135020e-02,1.149434e-01,
5.700532e-02,9.150299e-01,-2.400497e-01,2.298494e-01,-3.635290e-01,-5.126415e-02,-1.975775e-01,1.747103e-01,6.190154e-02,2.988439e-02,9.437723e-02,4.070474e-02,1.357792e-01,3.606925e-02,1.940478e-01,6.122015e-01,-2.930770e-02,-1.796757e-01,2.269875e-02,1.768220e-01,
-4.791889e-02,-9.467612e-03,-1.131470e-02,-3.387778e-02,-1.600149e-02,-4.198861e-02,-8.038942e-03,-1.272641e-02,-3.868413e-03,2.615454e-02,-2.158339e-03,1.321443e-03,-2.636498e-02,-9.723326e-04,-5.045213e-02,-1.963948e-02,-6.457340e-03,-2.833518e-02,-3.465897e-02,1.781786e-02,
-3.658247e-03,3.631738e-03,1.536937e-02,5.130218e-04,-2.931061e-03,-4.424996e-04,-2.860152e-02,-4.041792e-02,-9.644593e-03,5.244014e-03,2.537812e-02,1.942761e-03,-5.590186e-03,2.490314e-02,-1.261765e-02,1.293935e-02,-5.267363e-02,3.061066e-02,-5.223318e-02,-2.760240e-02,
5.238423e-01,-1.917448e-01,-2.136043e-01,-4.828092e-01,2.577200e-01,-9.499141e-02,-4.153997e-02,-3.960041e-01,-9.305041e-02,3.906691e-01,1.439735e-01,7.855727e-02,-1.076710e-01,1.602216e-01,1.342301e-01,-4.059663e-01,7.636668e-02,-5.409133e-02,2.943867e-01,-2.169272e-01,
-1.904766e-01,3.730492e-01,-3.779787e-01,-2.460172e-01,3.459543e-01,2.875119e-01,-5.424638e-01,3.749131e-02,-1.632205e-01,3.215197e-02,8.672959e-02,1.163738e-01,-2.070852e-01,-6.960738e-02,5.148600e-02,6.429943e-01,-1.458567e-02,2.523495e-01,1.317600e-01,1.325038e-02,
-8.317846e-02,-3.874686e-02,-1.467319e-01,-2.127331e-01,2.084567e-01,-3.497091e-01,2.475215e-01,8.413601e-02,-1.699575e-01,4.308763e-01,9.786639e-02,-8.086425e-02,2.467580e-01,-5.192161e-02,4.512062e-02,3.101413e-01,-3.805839e-01,-4.034190e-01,-1.506022e-01,6.968048e-02,
-1.490103e-01,1.067099e+00,-2.147767e-01,-7.349228e-01,5.014063e-01,-5.090719e-01,-4.161163e-02,7.653140e-01,1.519066e-01,-1.835892e-01,-2.735305e-01,5.134618e-01,-7.311136e-02,-6.289248e-02,-1.167946e-01,5.860855e-02,6.471550e-01,-2.219743e-01,-2.233481e-01,3.085846e-02,
9.892907e-01,-5.129510e-01,-3.402991e-01,-1.336331e-01,-6.853678e-02,-1.312715e-01,1.598032e-01,-5.736795e-02,4.510898e-02,2.713764e-01,-2.195903e-01,-7.471781e-03,2.153114e-01,-1.261348e-01,1.106165e-01,3.103264e-01,1.545599e-01,1.512187e-01,-4.858285e-02,7.557838e-02,
3.809559e-01,-1.045868e-01,5.450096e-01,-9.853356e-02,1.414990e-01,1.990190e-01,3.371836e-02,-2.884211e-01,3.258804e-01,-3.140622e-01,5.590522e-01,1.876383e-01,1.817747e-01,2.006230e-02,1.296666e-01,3.144159e-02,-2.848473e-01,2.159721e-02,2.433437e-01,2.250642e-01,
-1.153230e-02,-4.058393e-02,-2.771291e-03,-5.725461e-02,-3.746481e-02,-1.151860e-02,-2.251320e-02,2.902917e-02,2.086222e-02,-9.005885e-03,2.849810e-02,-2.766756e-02,6.516492e-03,-1.734801e-02,-2.306379e-02,8.378191e-03,3.537108e-02,4.181038e-03,-1.873155e-02,1.474194e-02,
1.310711e-01,7.853167e-01,-1.865828e-01,4.921540e-02,1.773648e-01,1.773995e-01,3.128201e-01,-9.336983e-02,1.272112e-01,4.460715e-01,-1.133770e+00,-1.446069e-01,3.872032e-01,-2.152886e-01,4.891617e-01,6.730988e-01,2.223504e-01,-5.758323e-02,-6.688609e-02,-2.080433e-02,
2.844649e-01,6.553677e-01,-5.372570e-02,-2.739284e-02,4.069015e-01,3.353634e-01,-3.765553e-01,5.538965e-01,-2.501598e+00,-9.242811e-02,6.147372e-03,1.107314e-02,-7.999724e-02,-4.586672e-01,9.391091e-02,3.638628e-01,-3.446172e-01,-1.914106e-02,-2.688925e-01,-1.247527e-01,
3.871863e-02,
4.373089e-02,
8.097874e-02,
1.135653e-01,
1.687133e-01,
-8.967168e-03,
8.659067e-03,
-3.090086e-02,
1.827498e-02,
-5.925418e-03,
-1.252845e-02,
1.046621e-01,
-6.209340e-02,
1.045182e-01,
7.244315e-03,
2.694252e-02,
1.063390e-01,
-1.304040e-02,
1.770434e-02,
-1.343545e-01,
1.955971e-01,8.550682e-02,1.934214e-03,-1.150979e-01,4.632198e-01,-4.016031e-02,8.393840e-01,1.843807e-01,9.276213e-01,2.672066e-03,1.697667e-03,-2.937789e-01,6.197353e-02,-4.359639e-02,-2.637130e-01,-6.559299e-01,-2.605278e-01,-2.257894e-02,7.252297e-01,-2.124121e-02,
2.404115e+00,-2.639648e+00,-2.412115e-01,4.572782e-01,-5.732683e-02,-5.307966e-04,-1.567483e-01,4.144031e-01,6.922906e-01,-4.375912e-02,-3.650910e-02,5.094537e-01,7.590449e-01,8.178958e-01,3.682328e-01,3.897179e-01,-3.075564e-01,-3.198400e-02,3.175873e-01,9.133382e-01,
1.464375e+00,2.835568e-01,-4.022671e-01,3.000629e-01,-5.431941e-01,-4.327112e-02,1.735758e-01,1.411753e+00,8.850131e-01,4.781838e-02,-4.219253e-02,3.003376e-01,-7.229110e-02,1.809907e-01,3.442727e-01,2.021965e-01,-3.733299e-01,4.235878e-02,2.356678e-01,-3.476485e+00,
1.166741e+00,5.593816e-01,-2.193158e-02,1.538605e-01,-6.979575e-01,5.888710e-03,5.523794e-01,-7.038669e-01,1.512576e-01,1.102144e-02,2.860620e-02,-2.288581e-01,4.061855e-01,-4.366869e-01,9.825615e-01,5.132400e-01,-1.513271e-01,2.580520e-02,-2.638890e-01,1.929279e-02,
-4.769995e-02,-2.272112e-02,1.932777e-03,3.368653e-02,-1.598676e-02,-4.584762e-02,5.178729e-03,-5.070429e-02,-4.621298e-03,-1.073494e-02,-1.264974e-02,-3.860207e-02,-3.337027e-02,-3.037588e-02,2.163853e-02,1.058874e-02,-5.976011e-04,-5.121724e-02,-4.852049e-02,4.433635e-02,
6.226356e-01,8.901607e-01,-3.694503e-01,4.501782e-01,-1.160859e+00,8.686154e-03,2.741379e-01,4.977123e-01,8.833809e-01,-3.536168e-02,1.904299e-02,1.870634e-01,4.261902e-02,6.648598e-01,-2.954409e-01,1.595237e-01,-2.538082e-01,-3.137078e-02,2.731293e-01,1.676243e+00,
9.449870e-02,6.168011e-01,-3.221224e-01,2.857639e-01,-1.445583e+00,-3.763447e-03,6.625378e-01,3.796274e-01,6.881190e-01,-2.436940e-02,-4.119314e-02,2.834711e-01,8.207775e-01,6.439750e-01,-2.764669e-02,-2.207643e-02,-3.068288e-01,-4.204374e-02,1.221985e-01,1.176015e+00,
7.177727e-01,5.501255e-01,-2.869833e-01,1.547965e-01,-1.738920e+00,7.282748e-03,3.330643e-01,1.117189e+00,3.787878e-01,1.983757e-02,-4.139887e-02,-8.126532e-02,2.150098e-01,-3.462210e-01,-4.874964e-01,3.057885e-01,-2.976631e-01,-3.352707e-02,6.205941e-01,-1.999084e+00,
4.681024e-01,5.705632e-01,-2.268744e-01,6.537198e-02,-1.295506e+00,2.582607e-02,2.636648e-01,1.396049e+00,3.295100e-01,-1.555245e-02,-4.679252e-03,4.324426e-01,6.595484e-01,1.161714e+00,2.787780e-02,-3.569238e-01,-1.538473e-01,1.369906e-02,2.444573e-01,-5.228834e-01,
-3.808480e-01,2.197036e-01,5.005605e-01,4.306924e-01,1.047953e+00,1.425276e-02,7.929558e-02,-1.962729e-01,-5.539151e-01,-4.590941e-02,2.404796e-04,2.787855e-01,-7.182678e-01,-3.005054e-01,6.514734e-01,3.690560e-01,5.947562e-01,6.412604e-03,5.480489e-01,1.624577e+00,
-4.986678e-01,1.301964e+00,-2.970490e-01,4.258571e-01,-2.427708e-01,-1.093784e-02,8.077542e-01,6.641397e-01,-1.603159e-01,-3.428479e-02,-5.685769e-03,3.584829e-01,8.960122e-01,-2.852289e-01,5.414187e-02,2.075805e-01,-1.351745e-01,4.302130e-02,4.822300e-04,1.263238e+00,
-4.259374e-01,1.862337e-01,5.850801e-01,4.211882e-01,1.065063e+00,4.305295e-02,1.142137e-01,-3.301857e-01,-6.781241e-01,-4.555971e-02,-3.499363e-02,3.202227e-01,-6.634017e-01,-3.175324e-01,6.645776e-01,3.160898e-01,5.972871e-01,1.648661e-02,4.711026e-01,1.867653e+00,
2.445568e-02,-3.857834e-02,-2.277156e-03,-3.647883e-03,3.651797e-02,1.836990e-03,4.157175e-02,-5.166179e-02,2.509409e-02,2.589608e-02,3.124103e-02,-4.799843e-02,-4.907386e-02,-4.868376e-02,-1.510744e-02,-1.600792e-02,-4.744741e-02,-4.957436e-02,-2.270905e-02,2.750085e-02,
2.006830e-01,5.565030e-01,-2.947824e-01,2.199160e-01,-1.129733e+00,-3.736576e-02,5.298571e-01,1.228207e-01,7.141506e-01,-3.307084e-02,-2.502816e-02,1.203150e-01,9.784198e-01,5.948339e-01,2.445481e-02,5.206797e-02,-2.353531e-01,-1.716711e-02,1.064404e-01,6.462095e-01,
-9.519299e-01,1.427440e+00,1.521055e-01,2.904215e-02,8.664084e-02,-3.131288e-02,-1.571803e-02,7.022573e-01,7.700935e-01,2.047994e-02,-4.248407e-02,1.489993e-01,1.585715e+00,5.568482e-01,-9.265775e-01,1.033555e-01,1.589271e-02,-3.653317e-03,-1.912693e-01,7.842326e-01,
-9.501052e-01,1.095302e+00,-3.631490e-01,3.208252e-01,-8.939801e-01,1.292347e-02,9.431956e-01,2.522430e-01,6.613347e-01,3.117052e-02,-2.606102e-02,6.152864e-01,8.001626e-01,1.077385e-01,2.117844e-03,2.143417e-01,-1.851328e-01,-3.528314e-02,2.419714e-01,1.777652e+00,
1.049004e+00,-4.231187e-01,-2.823659e-01,3.730519e-01,-2.818370e-01,-1.843688e-02,-3.391980e-02,5.191076e-01,9.990085e-01,-3.951135e-02,3.241900e-02,3.657742e-01,1.173183e+00,2.491148e-01,-6.873556e-01,3.700323e-01,-2.387055e-01,5.665248e-03,3.708888e-01,-4.105651e+00,
-5.040551e-01,9.356559e-01,-3.625249e-02,4.783588e-01,3.173554e-01,5.540732e-06,-4.932403e-01,2.949338e-01,-6.317994e-01,-1.052758e-02,3.377337e-02,-5.866706e-01,-2.158998e+00,1.492612e-01,-4.675511e-01,5.688682e-01,-4.299520e-01,-8.348608e-03,-1.789715e-01,-2.366999e+00,
4.602213e-01,8.620177e-01,-2.844498e-01,2.241143e-01,-1.038318e+00,1.785587e-02,4.167924e-01,4.783134e-02,9.517037e-01,3.881645e-02,-4.471406e-02,2.967608e-01,1.557311e-01,4.900733e-01,-1.985965e-01,2.688244e-01,-3.497357e-01,1.075942e-02,1.380758e-01,1.679835e+00,
-3.426694e-02,-1.111616e-02,-4.624045e-02,-1.703276e-02,1.862589e-02,4.050979e-02,7.606310e-03,-3.387040e-02,2.186321e-02,1.674241e-02,2.424881e-02,-5.351644e-03,-4.741475e-03,8.311395e-03,-2.695279e-02,-1.010912e-02,-3.502032e-02,-3.859719e-02,3.624495e-03,-5.179565e-02,
-1.640195e-01,
-9.796261e-02,
9.005492e-02,
-2.111151e-02,
-6.042837e-03,
7.104940e-02,
2.928966e-02,
2.337318e-01,
1.627998e-01,
4.176532e-01,
5.917281e-02,
4.251743e-01,
-6.044879e-03,
1.141382e-02,
-7.258464e-02,
-6.999755e-02,
1.595220e-01,
8.769361e-02,
7.782872e-02,
-6.044945e-03,
2.699741e-02,4.950957e-02,-4.791541e-02,-4.597136e-02,4.833737e-02,2.710580e-02,-4.648254e-02,-4.857934e-02,-3.068895e-02,-4.485538e-02,1.760432e-03,-6.334816e-03,-3.054036e-03,-5.529110e-03,2.171513e-02,-3.899841e-02,7.696508e-03,-1.625439e-02,4.176298e-02,-1.949320e-02,
-6.173990e+00,7.916539e-01,1.225960e+00,2.487339e+00,3.172957e-02,6.703170e-01,4.532807e-01,4.879684e-01,5.343612e-01,-3.952385e-01,5.803795e-01,-3.217769e-01,-2.715664e-03,5.342880e-01,6.361768e-01,6.632969e-01,1.422842e+00,1.377472e+00,4.812817e-01,-3.340038e-02,
1.427390e-02,4.526273e-02,-2.281367e-02,-4.642046e-02,2.293486e-03,2.293130e-02,3.790229e-02,-4.448013e-02,-1.616766e-02,-2.345791e-02,-4.266863e-02,-3.233779e-02,-2.707959e-02,4.837066e-02,-1.634517e-02,-2.575384e-02,-2.155610e-02,-2.350678e-02,1.314444e-02,2.998690e-02,
2.528001e+00,-1.450107e-01,-3.995840e-01,1.041199e+00,7.125883e-03,-1.580767e-01,-2.616557e+00,-3.324668e-01,-1.101878e+00,-6.365371e-02,7.837400e-02,2.708598e-02,4.116772e-03,9.980024e-01,2.463475e-01,-2.941764e-01,8.256207e-01,3.965437e+00,1.746894e-01,2.301903e-02,
-5.536190e+00,8.709936e-01,1.265422e+00,3.002845e+00,6.970739e-03,5.619826e-01,5.171459e-01,4.828457e-01,6.023187e-01,-2.762454e-01,6.050168e-01,-2.377611e-01,-9.163346e-03,5.960397e-01,9.044756e-01,8.318874e-01,1.247339e+00,1.433152e+00,3.873668e-01,-2.499403e-02,
-5.577479e+00,9.918046e-01,1.318614e+00,2.581293e+00,3.080607e-02,7.329540e-01,5.811663e-01,4.622706e-01,5.779592e-01,-2.950419e-01,6.730445e-01,-3.774713e-01,2.395920e-02,6.070303e-01,6.332656e-01,8.018504e-01,1.384710e+00,1.364880e+00,5.171921e-01,3.111256e-02,
9.688318e-01,-2.447860e-01,-1.065029e-01,-2.390624e+00,3.841031e-02,-8.411560e-01,-2.487689e-01,-4.842066e-02,-3.021068e-01,4.125260e-01,-2.894129e-01,4.255319e-01,9.839037e-03,-3.477408e-01,-1.987622e+00,-1.584076e-01,-1.917936e-01,-5.300700e+00,-5.199257e-01,2.555047e-02,
6.439726e+00,-7.056667e-01,-1.110396e+00,-3.601045e+00,9.294857e-03,-5.409949e-01,-2.983807e-01,-1.774652e-01,-2.079318e-01,6.797670e-01,-4.193630e-01,6.562067e-01,-2.313057e-02,-4.869948e-01,-1.414513e+00,-6.908707e-01,-1.123072e+00,-1.414135e+00,-2.868224e-01,-2.506444e-02,
-5.942140e+00,8.300290e-01,1.269291e+00,2.502652e+00,1.735171e-03,7.141297e-01,5.318607e-01,5.182307e-01,6.010618e-01,-3.505987e-01,5.142636e-01,-3.630891e-01,8.843340e-03,5.741312e-01,6.111924e-01,7.115241e-01,1.362281e+00,1.383062e+00,4.362915e-01,3.398116e-02,
2.396827e-02,-1.124222e-02,-4.760129e-02,-3.184006e-02,-4.340696e-02,-4.887032e-02,-6.920821e-03,3.699180e-02,2.654241e-03,-5.250181e-03,-6.011502e-03,-2.653188e-02,-3.659762e-02,-2.507331e-02,-2.418723e-02,2.512338e-03,2.118588e-02,1.932457e-02,7.105621e-03,4.012824e-02,
-3.226122e+00,-4.629279e+00,2.696375e+00,1.829823e+00,2.121568e-03,2.739791e+00,2.098003e+00,-3.780457e+00,-3.225938e+00,3.203056e-01,-3.615151e+00,3.560534e-01,-3.658939e-02,1.081405e+00,2.056165e+00,2.535551e+00,-2.157528e+00,-3.157673e+00,2.313742e+00,1.608649e-02,
-4.936888e-02,3.234424e-02,3.948411e-02,2.948482e-02,-3.708229e-02,-2.802453e-02,-3.138824e-02,-1.560336e-02,-3.914994e-02,-4.360108e-02,1.934608e-02,7.379224e-03,3.878056e-02,2.413086e-02,3.975941e-02,-3.938813e-02,-2.298498e-02,1.715951e-02,1.168914e-02,3.399776e-02,
-5.911245e+00,9.127807e-01,1.338107e+00,2.441719e+00,-9.463491e-03,6.726256e-01,5.464103e-01,4.815577e-01,6.024072e-01,-3.458214e-01,6.219192e-01,-3.625357e-01,1.906103e-02,5.820838e-01,6.562469e-01,7.140694e-01,1.365958e+00,1.390890e+00,4.952415e-01,4.987414e-02,
-6.030584e+00,9.084167e-01,1.269096e+00,2.391533e+00,-2.679084e-02,6.979343e-01,5.696697e-01,5.145366e-01,5.638864e-01,-3.501590e-01,5.226479e-01,-3.506542e-01,3.138272e-02,5.847358e-01,5.944422e-01,6.631691e-01,1.404507e+00,1.340971e+00,4.584886e-01,-3.448230e-02,
1.708516e+00,8.275190e-02,6.089065e-02,-7.127779e+00,4.546032e-02,-2.927204e-01,-5.803211e-02,-2.395239e-02,-8.550785e-02,3.607813e-01,2.630273e-01,3.128115e-01,3.750569e-02,-2.860689e-01,-1.703353e+00,1.038663e-01,-7.564912e-02,-4.060246e-01,-6.232737e-01,-1.520748e-02,
1.538295e-02,3.786962e-02,-4.219428e-02,-4.387466e-02,1.347199e-04,8.359049e-03,4.273082e-02,-1.514958e-02,-4.101733e-02,2.673862e-02,-1.861041e-02,-5.024889e-02,-2.175976e-03,-2.448965e-02,1.858359e-02,2.117984e-03,1.756735e-03,-1.389911e-02,1.541681e-02,3.505626e-02,
-2.502996e-02,-2.426985e-02,3.601311e-02,-5.251642e-02,-2.841930e-02,8.588402e-03,-3.256658e-02,1.288790e-03,-3.592862e-02,-1.723940e-02,7.787485e-03,-2.504951e-02,-7.146805e-03,2.266527e-02,-4.192403e-02,-4.707299e-02,-4.562290e-02,1.989070e-02,-2.198592e-02,-1.517035e-02,
1.068607e+00,-1.014692e-01,-1.522129e-01,-2.249997e+00,-5.997932e-03,-7.014282e-01,-3.106802e-01,-1.271185e-01,-4.106867e-01,3.984905e-01,-4.094218e-01,3.820018e-01,3.178350e-02,-3.710549e-01,-2.041179e+00,-2.720735e-01,-1.708358e-02,-6.461055e+00,-4.361950e-01,4.296694e-02,
-2.277030e+00,-2.467237e+00,-5.211661e-01,-8.746059e-01,1.780395e-03,-1.336394e+00,-1.543836e+00,-5.049200e-01,2.596460e-01,4.319600e-01,-7.880865e-01,3.709648e-01,1.471010e-02,-2.151658e+00,7.737005e-01,-2.917284e+00,2.495046e-01,-1.488486e+00,-1.512626e+00,-4.492141e-02,
1.684351e+00,2.851756e-01,6.347262e-01,-9.639675e+00,-2.666193e-02,-2.767232e-01,2.243337e-02,2.398386e-01,-4.840321e-02,3.144850e-01,3.857403e-01,2.872183e-01,-1.680713e-02,-2.857039e-01,-1.787785e+00,3.068502e-01,-8.788706e-02,3.677844e-01,-7.397777e-01,1.195783e-02,
0.000000e+00,
-2.776616e-02,
-6.039612e-03,
-1.076762e-01,
6.527334e-02,
-2.354553e-02,
4.253336e-01,
5.268650e-01,
1.442909e-03,
-6.165968e-03,
-4.505923e-01,
-8.051951e-03,
3.945886e-03,
-2.287491e-02,
2.032769e-01,
-1.178939e-02,
-6.045184e-03,
5.127115e-01,
6.884286e-01,
8.515252e-02,
-1.690722e-02,1.469464e+00,-2.814897e-02,7.463036e+00,1.317897e+00,1.417379e+00,-2.695063e+00,-9.797187e-01,1.467998e+00,2.343962e-02,1.398382e+01,1.052464e-02,1.481842e+00,1.431929e+00,-2.791638e+00,3.265380e-03,-4.052329e-03,-2.972445e+00,-6.124393e+00,-3.309213e+00,
7.406900e-03,-1.435194e+00,-5.078809e-02,-7.519542e+00,-1.301275e+00,-1.464095e+00,2.708248e+00,9.844529e-01,-1.448206e+00,1.861520e-02,-1.403474e+01,2.206480e-03,-1.437157e+00,-1.466657e+00,2.832502e+00,4.325687e-02,4.025336e-02,2.995221e+00,6.169928e+00,3.341671e+00,
-1.450372e-01,
1.450510e-01,
